<?xml version="1.0"?>
<opencv_storage>
<cascade>
  <stageType>BOOST</stageType>
  <featureType>HAAR</featureType>
  <height>24</height>
  <width>24</width>
  <stageParams>
    <boostType>GAB</boostType>
    <minHitRate>0.99900001287460327</minHitRate>
    <maxFalseAlarm>0.15000000596046448</maxFalseAlarm>
    <weightTrimRate>0.94999999999999996</weightTrimRate>
    <maxDepth>1</maxDepth>
    <maxWeakCount>100</maxWeakCount></stageParams>
  <featureParams>
    <maxCatCount>0</maxCatCount>
    <featSize>1</featSize>
    <mode>BASIC</mode></featureParams>
  <stageNum>5</stageNum>
  <stages>
    <!-- stage 0 -->
    <_>
      <maxWeakCount>1</maxWeakCount>
      <stageThreshold>0.70588237047195435</stageThreshold>
      <weakClassifiers>
        <_>
          <internalNodes>
            0 -1 2 -0.017889898270368576</internalNodes>
          <leafValues>
            0.70588237047195435 -1.</leafValues></_></weakClassifiers></_>
    <!-- stage 1 -->
    <_>
      <maxWeakCount>2</maxWeakCount>
      <stageThreshold>-0.3053213357925415</stageThreshold>
      <weakClassifiers>
        <_>
          <internalNodes>
            0 -1 4 -0.037664104253053665</internalNodes>
          <leafValues>
            0.6875 -0.95876288414001465</leafValues></_>
        <_>
          <internalNodes>
            0 -1 0 -0.02170843631029129</internalNodes>
          <leafValues>
            0.65344154834747314 -0.97663027048110962</leafValues></_></weakClassifiers></_>
    <!-- stage 2 -->
    <_>
      <maxWeakCount>1</maxWeakCount>
      <stageThreshold>0.48717948794364929</stageThreshold>
      <weakClassifiers>
        <_>
          <internalNodes>
            0 -1 5 -0.013653790578246117</internalNodes>
          <leafValues>
            0.48717948794364929 -1.</leafValues></_></weakClassifiers></_>
    <!-- stage 3 -->
    <_>
      <maxWeakCount>3</maxWeakCount>
      <stageThreshold>0.13495808839797974</stageThreshold>
      <weakClassifiers>
        <_>
          <internalNodes>
            0 -1 8 0.0098041929304599762</internalNodes>
          <leafValues>
            -0.93684208393096924 0.52941179275512695</leafValues></_>
        <_>
          <internalNodes>
            0 -1 1 -0.018985629081726074</internalNodes>
          <leafValues>
            0.55034458637237549 -1.</leafValues></_>
        <_>
          <internalNodes>
            0 -1 9 0.0077161761000752449</internalNodes>
          <leafValues>
            -0.94479823112487793 0.57167208194732666</leafValues></_></weakClassifiers></_>
    <!-- stage 4 -->
    <_>
      <maxWeakCount>3</maxWeakCount>
      <stageThreshold>0.36076334118843079</stageThreshold>
      <weakClassifiers>
        <_>
          <internalNodes>
            0 -1 3 -0.20366385579109192</internalNodes>
          <leafValues>
            0.875 -0.75221240520477295</leafValues></_>
        <_>
          <internalNodes>
            0 -1 7 -0.017321269959211349</internalNodes>
          <leafValues>
            0.58180361986160278 -0.90119177103042603</leafValues></_>
        <_>
          <internalNodes>
            0 -1 6 0.00016024211072362959</internalNodes>
          <leafValues>
            -1. 0.53117209672927856</leafValues></_></weakClassifiers></_></stages>
  <features>
    <_>
      <rects>
        <_>
          0 1 8 6 -1.</_>
        <_>
          4 1 4 6 2.</_></rects>
      <tilted>0</tilted></_>
    <_>
      <rects>
        <_>
          0 4 4 15 -1.</_>
        <_>
          2 4 2 15 2.</_></rects>
      <tilted>0</tilted></_>
    <_>
      <rects>
        <_>
          1 2 5 6 -1.</_>
        <_>
          1 5 5 3 2.</_></rects>
      <tilted>0</tilted></_>
    <_>
      <rects>
        <_>
          1 4 19 14 -1.</_>
        <_>
          1 11 19 7 2.</_></rects>
      <tilted>0</tilted></_>
    <_>
      <rects>
        <_>
          10 0 14 10 -1.</_>
        <_>
          10 0 7 5 2.</_>
        <_>
          17 5 7 5 2.</_></rects>
      <tilted>0</tilted></_>
    <_>
      <rects>
        <_>
          15 0 4 6 -1.</_>
        <_>
          15 3 4 3 2.</_></rects>
      <tilted>0</tilted></_>
    <_>
      <rects>
        <_>
          18 20 6 4 -1.</_>
        <_>
          18 22 6 2 2.</_></rects>
      <tilted>0</tilted></_>
    <_>
      <rects>
        <_>
          20 3 4 6 -1.</_>
        <_>
          20 6 4 3 2.</_></rects>
      <tilted>0</tilted></_>
    <_>
      <rects>
        <_>
          20 14 4 6 -1.</_>
        <_>
          22 14 2 6 2.</_></rects>
      <tilted>0</tilted></_>
    <_>
      <rects>
        <_>
          22 3 2 17 -1.</_>
        <_>
          23 3 1 17 2.</_></rects>
      <tilted>0</tilted></_></features></cascade>
</opencv_storage>
