<?xml version="1.0"?>
<opencv_storage>
<cascade>
  <stageType>BOOST</stageType>
  <featureType>HAAR</featureType>
  <height>24</height>
  <width>24</width>
  <stageParams>
    <boostType>GAB</boostType>
    <minHitRate>0.99900001287460327</minHitRate>
    <maxFalseAlarm>0.30000001192092896</maxFalseAlarm>
    <weightTrimRate>0.94999999999999996</weightTrimRate>
    <maxDepth>1</maxDepth>
    <maxWeakCount>100</maxWeakCount></stageParams>
  <featureParams>
    <maxCatCount>0</maxCatCount>
    <featSize>1</featSize>
    <mode>BASIC</mode></featureParams>
  <stageNum>6</stageNum>
  <stages>
    <!-- stage 0 -->
    <_>
      <maxWeakCount>1</maxWeakCount>
      <stageThreshold>0.70588237047195435</stageThreshold>
      <weakClassifiers>
        <_>
          <internalNodes>
            0 -1 2 -0.017889898270368576</internalNodes>
          <leafValues>
            0.70588237047195435 -1.</leafValues></_></weakClassifiers></_>
    <!-- stage 1 -->
    <_>
      <maxWeakCount>2</maxWeakCount>
      <stageThreshold>-0.3053213357925415</stageThreshold>
      <weakClassifiers>
        <_>
          <internalNodes>
            0 -1 5 -0.037664104253053665</internalNodes>
          <leafValues>
            0.6875 -0.95876288414001465</leafValues></_>
        <_>
          <internalNodes>
            0 -1 0 -0.02170843631029129</internalNodes>
          <leafValues>
            0.65344154834747314 -0.97663027048110962</leafValues></_></weakClassifiers></_>
    <!-- stage 2 -->
    <_>
      <maxWeakCount>1</maxWeakCount>
      <stageThreshold>0.48717948794364929</stageThreshold>
      <weakClassifiers>
        <_>
          <internalNodes>
            0 -1 7 -0.013653790578246117</internalNodes>
          <leafValues>
            0.48717948794364929 -1.</leafValues></_></weakClassifiers></_>
    <!-- stage 3 -->
    <_>
      <maxWeakCount>2</maxWeakCount>
      <stageThreshold>-0.38649752736091614</stageThreshold>
      <weakClassifiers>
        <_>
          <internalNodes>
            0 -1 9 0.0098041929304599762</internalNodes>
          <leafValues>
            -0.93684208393096924 0.52941179275512695</leafValues></_>
        <_>
          <internalNodes>
            0 -1 1 -0.018985629081726074</internalNodes>
          <leafValues>
            0.55034458637237549 -1.</leafValues></_></weakClassifiers></_>
    <!-- stage 4 -->
    <_>
      <maxWeakCount>2</maxWeakCount>
      <stageThreshold>-0.29633194208145142</stageThreshold>
      <weakClassifiers>
        <_>
          <internalNodes>
            0 -1 8 0.018971625715494156</internalNodes>
          <leafValues>
            -0.86407768726348877 0.69230771064758301</leafValues></_>
        <_>
          <internalNodes>
            0 -1 6 -0.020132256671786308</internalNodes>
          <leafValues>
            0.56774574518203735 -0.97586876153945923</leafValues></_></weakClassifiers></_>
    <!-- stage 5 -->
    <_>
      <maxWeakCount>3</maxWeakCount>
      <stageThreshold>-0.17481182515621185</stageThreshold>
      <weakClassifiers>
        <_>
          <internalNodes>
            0 -1 10 0.0077723497524857521</internalNodes>
          <leafValues>
            -0.95180720090866089 0.17391304671764374</leafValues></_>
        <_>
          <internalNodes>
            0 -1 3 0.0073024220764636993</internalNodes>
          <leafValues>
            -0.83418750762939453 0.52371513843536377</leafValues></_>
        <_>
          <internalNodes>
            0 -1 4 -0.0011924130376428366</internalNodes>
          <leafValues>
            -1. 0.48546260595321655</leafValues></_></weakClassifiers></_></stages>
  <features>
    <_>
      <rects>
        <_>
          0 1 8 6 -1.</_>
        <_>
          4 1 4 6 2.</_></rects>
      <tilted>0</tilted></_>
    <_>
      <rects>
        <_>
          0 4 4 15 -1.</_>
        <_>
          2 4 2 15 2.</_></rects>
      <tilted>0</tilted></_>
    <_>
      <rects>
        <_>
          1 2 5 6 -1.</_>
        <_>
          1 5 5 3 2.</_></rects>
      <tilted>0</tilted></_>
    <_>
      <rects>
        <_>
          1 8 1 16 -1.</_>
        <_>
          1 16 1 8 2.</_></rects>
      <tilted>0</tilted></_>
    <_>
      <rects>
        <_>
          2 0 18 4 -1.</_>
        <_>
          2 0 9 2 2.</_>
        <_>
          11 2 9 2 2.</_></rects>
      <tilted>0</tilted></_>
    <_>
      <rects>
        <_>
          10 0 14 10 -1.</_>
        <_>
          10 0 7 5 2.</_>
        <_>
          17 5 7 5 2.</_></rects>
      <tilted>0</tilted></_>
    <_>
      <rects>
        <_>
          14 0 8 10 -1.</_>
        <_>
          14 0 4 5 2.</_>
        <_>
          18 5 4 5 2.</_></rects>
      <tilted>0</tilted></_>
    <_>
      <rects>
        <_>
          15 0 4 6 -1.</_>
        <_>
          15 3 4 3 2.</_></rects>
      <tilted>0</tilted></_>
    <_>
      <rects>
        <_>
          20 12 4 6 -1.</_>
        <_>
          22 12 2 6 2.</_></rects>
      <tilted>0</tilted></_>
    <_>
      <rects>
        <_>
          20 14 4 6 -1.</_>
        <_>
          22 14 2 6 2.</_></rects>
      <tilted>0</tilted></_>
    <_>
      <rects>
        <_>
          22 1 2 19 -1.</_>
        <_>
          23 1 1 19 2.</_></rects>
      <tilted>0</tilted></_></features></cascade>
</opencv_storage>
