<?xml version="1.0"?>
<opencv_storage>
<cascade>
  <stageType>BOOST</stageType>
  <featureType>HAAR</featureType>
  <height>24</height>
  <width>24</width>
  <stageParams>
    <boostType>GAB</boostType>
    <minHitRate>0.99900001287460327</minHitRate>
    <maxFalseAlarm>0.15000000596046448</maxFalseAlarm>
    <weightTrimRate>0.94999999999999996</weightTrimRate>
    <maxDepth>1</maxDepth>
    <maxWeakCount>100</maxWeakCount></stageParams>
  <featureParams>
    <maxCatCount>0</maxCatCount>
    <featSize>1</featSize>
    <mode>BASIC</mode></featureParams>
  <stageNum>5</stageNum>
  <stages>
    <!-- stage 0 -->
    <_>
      <maxWeakCount>2</maxWeakCount>
      <stageThreshold>-0.13272286951541901</stageThreshold>
      <weakClassifiers>
        <_>
          <internalNodes>
            0 -1 3 -0.024691313505172729</internalNodes>
          <leafValues>
            0.86206895112991333 -0.95999997854232788</leafValues></_>
        <_>
          <internalNodes>
            0 -1 4 -0.15780091285705566</internalNodes>
          <leafValues>
            0.82727712392807007 -0.97947585582733154</leafValues></_></weakClassifiers></_>
    <!-- stage 1 -->
    <_>
      <maxWeakCount>2</maxWeakCount>
      <stageThreshold>-0.18369670212268829</stageThreshold>
      <weakClassifiers>
        <_>
          <internalNodes>
            0 -1 8 -0.063088499009609222</internalNodes>
          <leafValues>
            -0.90099012851715088 0.71428573131561279</leafValues></_>
        <_>
          <internalNodes>
            0 -1 10 0.035737417638301849</internalNodes>
          <leafValues>
            -0.89798241853713989 0.860160231590271</leafValues></_></weakClassifiers></_>
    <!-- stage 2 -->
    <_>
      <maxWeakCount>2</maxWeakCount>
      <stageThreshold>-0.23521102964878082</stageThreshold>
      <weakClassifiers>
        <_>
          <internalNodes>
            0 -1 5 0.048903845250606537</internalNodes>
          <leafValues>
            -0.87878787517547607 0.53333336114883423</leafValues></_>
        <_>
          <internalNodes>
            0 -1 11 0.025869723409414291</internalNodes>
          <leafValues>
            -0.76854437589645386 0.89039444923400879</leafValues></_></weakClassifiers></_>
    <!-- stage 3 -->
    <_>
      <maxWeakCount>3</maxWeakCount>
      <stageThreshold>0.13089394569396973</stageThreshold>
      <weakClassifiers>
        <_>
          <internalNodes>
            0 -1 2 -0.8807682991027832</internalNodes>
          <leafValues>
            0.51351350545883179 -0.97826087474822998</leafValues></_>
        <_>
          <internalNodes>
            0 -1 7 0.0041188374161720276</internalNodes>
          <leafValues>
            -0.97259420156478882 0.50536352396011353</leafValues></_>
        <_>
          <internalNodes>
            0 -1 6 -0.0090656261891126633</internalNodes>
          <leafValues>
            0.67915040254592896 -0.88798308372497559</leafValues></_></weakClassifiers></_>
    <!-- stage 4 -->
    <_>
      <maxWeakCount>3</maxWeakCount>
      <stageThreshold>-0.23154112696647644</stageThreshold>
      <weakClassifiers>
        <_>
          <internalNodes>
            0 -1 0 -0.0048040770925581455</internalNodes>
          <leafValues>
            0.20930232107639313 -0.93023258447647095</leafValues></_>
        <_>
          <internalNodes>
            0 -1 1 -0.03525795042514801</internalNodes>
          <leafValues>
            0.31668961048126221 -1.</leafValues></_>
        <_>
          <internalNodes>
            0 -1 9 -0.016557466238737106</internalNodes>
          <leafValues>
            -1. 0.38200181722640991</leafValues></_></weakClassifiers></_></stages>
  <features>
    <_>
      <rects>
        <_>
          0 0 2 17 -1.</_>
        <_>
          1 0 1 17 2.</_></rects>
      <tilted>0</tilted></_>
    <_>
      <rects>
        <_>
          0 0 10 11 -1.</_>
        <_>
          5 0 5 11 2.</_></rects>
      <tilted>0</tilted></_>
    <_>
      <rects>
        <_>
          0 0 24 23 -1.</_>
        <_>
          8 0 8 23 2.</_></rects>
      <tilted>0</tilted></_>
    <_>
      <rects>
        <_>
          0 0 20 4 -1.</_>
        <_>
          0 2 20 2 2.</_></rects>
      <tilted>0</tilted></_>
    <_>
      <rects>
        <_>
          0 1 14 23 -1.</_>
        <_>
          7 1 7 23 2.</_></rects>
      <tilted>0</tilted></_>
    <_>
      <rects>
        <_>
          1 2 4 16 -1.</_>
        <_>
          1 10 4 8 2.</_></rects>
      <tilted>0</tilted></_>
    <_>
      <rects>
        <_>
          6 0 14 2 -1.</_>
        <_>
          6 1 14 1 2.</_></rects>
      <tilted>0</tilted></_>
    <_>
      <rects>
        <_>
          7 22 13 2 -1.</_>
        <_>
          7 23 13 1 2.</_></rects>
      <tilted>0</tilted></_>
    <_>
      <rects>
        <_>
          9 7 6 15 -1.</_>
        <_>
          9 12 6 5 2.</_></rects>
      <tilted>0</tilted></_>
    <_>
      <rects>
        <_>
          10 19 3 5 -1.</_>
        <_>
          11 19 1 5 2.</_></rects>
      <tilted>0</tilted></_>
    <_>
      <rects>
        <_>
          12 20 12 4 -1.</_>
        <_>
          18 20 6 4 2.</_></rects>
      <tilted>0</tilted></_>
    <_>
      <rects>
        <_>
          21 2 2 10 -1.</_>
        <_>
          21 7 2 5 2.</_></rects>
      <tilted>0</tilted></_></features></cascade>
</opencv_storage>
